FANN_FLO_2.1
num_layers=3
learning_rate=0,700000
connection_rate=1,000000
network_type=0
learning_momentum=0,000000
training_algorithm=2
train_error_function=1
train_stop_function=0
cascade_output_change_fraction=0,010000
quickprop_decay=-0,000100
quickprop_mu=1,750000
rprop_increase_factor=1,200000
rprop_decrease_factor=0,500000
rprop_delta_min=0,000000
rprop_delta_max=50,000000
rprop_delta_zero=0,100000
cascade_output_stagnation_epochs=12
cascade_candidate_change_fraction=0,010000
cascade_candidate_stagnation_epochs=12
cascade_max_out_epochs=150
cascade_min_out_epochs=50
cascade_max_cand_epochs=150
cascade_min_cand_epochs=50
cascade_num_candidate_groups=2
bit_fail_limit=3,49999994039535522461e-01
cascade_candidate_limit=1,00000000000000000000e+03
cascade_weight_multiplier=4,00000005960464477539e-01
cascade_activation_functions_count=10
cascade_activation_functions=3 5 7 8 10 11 14 15 16 17 
cascade_activation_steepnesses_count=4
cascade_activation_steepnesses=2,50000000000000000000e-01 5,00000000000000000000e-01 7,50000000000000000000e-01 1,00000000000000000000e+00 
layer_sizes=7 25 5 
scale_included=0
neurons (num_inputs, activation_function, activation_steepness)=(0, 0, 0,00000000000000000000e+00) (0, 0, 0,00000000000000000000e+00) (0, 0, 0,00000000000000000000e+00) (0, 0, 0,00000000000000000000e+00) (0, 0, 0,00000000000000000000e+00) (0, 0, 0,00000000000000000000e+00) (0, 0, 0,00000000000000000000e+00) (7, 5, 9,99999977648258209229e-03) (7, 5, 9,99999977648258209229e-03) (7, 5, 9,99999977648258209229e-03) (7, 5, 9,99999977648258209229e-03) (7, 5, 9,99999977648258209229e-03) (7, 5, 9,99999977648258209229e-03) (7, 5, 9,99999977648258209229e-03) (7, 5, 9,99999977648258209229e-03) (7, 5, 9,99999977648258209229e-03) (7, 5, 9,99999977648258209229e-03) (7, 5, 9,99999977648258209229e-03) (7, 5, 9,99999977648258209229e-03) (7, 5, 9,99999977648258209229e-03) (7, 5, 9,99999977648258209229e-03) (7, 5, 9,99999977648258209229e-03) (7, 5, 9,99999977648258209229e-03) (7, 5, 9,99999977648258209229e-03) (7, 5, 9,99999977648258209229e-03) (7, 5, 9,99999977648258209229e-03) (7, 5, 9,99999977648258209229e-03) (7, 5, 9,99999977648258209229e-03) (7, 5, 9,99999977648258209229e-03) (7, 5, 9,99999977648258209229e-03) (7, 5, 9,99999977648258209229e-03) (0, 0, 0,00000000000000000000e+00) (25, 5, 9,99999977648258209229e-03) (25, 5, 9,99999977648258209229e-03) (25, 5, 9,99999977648258209229e-03) (25, 5, 9,99999977648258209229e-03) (0, 0, 0,00000000000000000000e+00) 
connections (connected_to_neuron, weight)=(0, 1,50000000000000000000e+03) (1, 8,87620258331298828125e+00) (2, 1,50000000000000000000e+03) (3, 2,47763419151306152344e+00) (4, 2,39749360084533691406e+00) (5, 2,52397322654724121094e+00) (6, 2,51275277137756347656e+00) (0, 1,50000000000000000000e+03) (1, 5,21290063858032226562e+00) (2, 1,50000000000000000000e+03) (3, 8,18712520599365234375e+00) (4, 8,03872585296630859375e+00) (5, 8,17551040649414062500e+00) (6, 8,16424465179443359375e+00) (0, 1,50000000000000000000e+03) (1, -1,32034187316894531250e+01) (2, 1,50000000000000000000e+03) (3, 5,86275625228881835938e+00) (4, 5,76224422454833984375e+00) (5, 5,93318176269531250000e+00) (6, 5,90683269500732421875e+00) (0, 1,50000000000000000000e+03) (1, 5,32139587402343750000e+00) (2, 1,50000000000000000000e+03) (3, 6,53632164001464843750e+00) (4, 6,49569559097290039062e+00) (5, 6,49835491180419921875e+00) (6, 6,53291082382202148438e+00) (0, 1,50000000000000000000e+03) (1, 1,63568553924560546875e+01) (2, 1,50000000000000000000e+03) (3, -3,42672133445739746094e+00) (4, -3,45152783393859863281e+00) (5, -3,51588749885559082031e+00) (6, -3,52541947364807128906e+00) (0, 1,50000000000000000000e+03) (1, -6,03430032730102539062e+00) (2, 1,50000000000000000000e+03) (3, -1,06030166149139404297e+00) (4, -1,00173652172088623047e+00) (5, -1,07967793941497802734e+00) (6, -1,10517871379852294922e+00) (0, 1,50000000000000000000e+03) (1, 1,41593208312988281250e+01) (2, 1,50000000000000000000e+03) (3, 2,49297833442687988281e+00) (4, 2,45139098167419433594e+00) (5, 2,56821036338806152344e+00) (6, 2,39537644386291503906e+00) (0, 1,50000000000000000000e+03) (1, 1,59261331558227539062e+01) (2, 1,50000000000000000000e+03) (3, -4,85134649276733398438e+00) (4, -4,78570413589477539062e+00) (5, -4,74786901473999023438e+00) (6, -4,73766660690307617188e+00) (0, 1,50000000000000000000e+03) (1, 1,41595163345336914062e+01) (2, 1,50000000000000000000e+03) (3, 2,54938435554504394531e+00) (4, 2,44436335563659667969e+00) (5, 2,43500828742980957031e+00) (6, 2,53316378593444824219e+00) (0, 1,50000000000000000000e+03) (1, 1,24488391876220703125e+01) (2, 1,50000000000000000000e+03) (3, 2,85856187343597412109e-01) (4, 4,74260866641998291016e-01) (5, 3,42132985591888427734e-01) (6, 3,96421968936920166016e-01) (0, 1,50000000000000000000e+03) (1, 5,24062967300415039062e+00) (2, 1,50000000000000000000e+03) (3, 8,41925144195556640625e+00) (4, 8,46802520751953125000e+00) (5, 8,46004772186279296875e+00) (6, 8,33589744567871093750e+00) (0, 1,50000000000000000000e+03) (1, 1,64969215393066406250e+01) (2, 1,50000000000000000000e+03) (3, -3,46919322013854980469e+00) (4, -3,47259449958801269531e+00) (5, -3,56876015663146972656e+00) (6, -3,41349053382873535156e+00) (0, 1,50000000000000000000e+03) (1, 1,22964706420898437500e+01) (2, 1,50000000000000000000e+03) (3, 3,32365453243255615234e-01) (4, 3,14530074596405029297e-01) (5, 3,24761092662811279297e-01) (6, 3,05417597293853759766e-01) (0, 1,50000000000000000000e+03) (1, 8,85508823394775390625e+00) (2, 1,50000000000000000000e+03) (3, 2,50718092918395996094e+00) (4, 2,43434262275695800781e+00) (5, 2,40177798271179199219e+00) (6, 2,51432013511657714844e+00) (0, 1,50000000000000000000e+03) (1, -2,11673593521118164062e+00) (2, 1,50000000000000000000e+03) (3, -1,50478134155273437500e+01) (4, -1,50225753784179687500e+01) (5, -1,50269565582275390625e+01) (6, -1,49072837829589843750e+01) (0, 1,50000000000000000000e+03) (1, -6,05614042282104492188e+00) (2, 1,50000000000000000000e+03) (3, -1,07373416423797607422e+00) (4, -9,77249324321746826172e-01) (5, -1,07871091365814208984e+00) (6, -1,13242614269256591797e+00) (0, 1,50000000000000000000e+03) (1, 2,73967838287353515625e+00) (2, 1,50000000000000000000e+03) (3, 3,92643666267395019531e+00) (4, 3,87047886848449707031e+00) (5, 3,73750567436218261719e+00) (6, 3,78008532524108886719e+00) (0, 1,50000000000000000000e+03) (1, 5,78284215927124023438e+00) (2, 1,50000000000000000000e+03) (3, -4,67666196823120117188e+00) (4, -4,59852743148803710938e+00) (5, -4,69648027420043945312e+00) (6, -4,74581384658813476562e+00) (0, 1,50000000000000000000e+03) (1, 1,44447269439697265625e+01) (2, 1,50000000000000000000e+03) (3, 2,75296378135681152344e+00) (4, 2,85775494575500488281e+00) (5, 2,88779520988464355469e+00) (6, 2,77119374275207519531e+00) (0, 1,50000000000000000000e+03) (1, -6,03846025466918945312e+00) (2, 1,50000000000000000000e+03) (3, -1,12566173076629638672e+00) (4, -1,11235940456390380859e+00) (5, -1,11376655101776123047e+00) (6, -1,02852809429168701172e+00) (0, 1,50000000000000000000e+03) (1, 5,23528146743774414062e+00) (2, 1,50000000000000000000e+03) (3, 8,46237277984619140625e+00) (4, 8,36187648773193359375e+00) (5, 8,29495525360107421875e+00) (6, 8,45314788818359375000e+00) (0, 1,50000000000000000000e+03) (1, 1,41427011489868164062e+01) (2, 1,50000000000000000000e+03) (3, 2,56493592262268066406e+00) (4, 2,44229865074157714844e+00) (5, 2,46630835533142089844e+00) (6, 2,43941140174865722656e+00) (0, 1,50000000000000000000e+03) (1, -2,06096410751342773438e+00) (2, 1,50000000000000000000e+03) (3, -1,56900119781494140625e+01) (4, -1,56944713592529296875e+01) (5, -1,57074928283691406250e+01) (6, -1,56258373260498046875e+01) (0, 1,50000000000000000000e+03) (1, -2,93584728240966796875e+01) (2, 1,50000000000000000000e+03) (3, 7,72486400604248046875e+00) (4, 7,76754188537597656250e+00) (5, 7,73566913604736328125e+00) (6, 7,77007007598876953125e+00) (7, 1,75951402634382247925e-02) (8, -7,36766755580902099609e-02) (9, 6,26230716705322265625e-01) (10, 1,17301065474748611450e-02) (11, -2,95555651187896728516e-01) (12, 4,96203005313873291016e-01) (13, 5,33722788095474243164e-02) (14, 5,86354672908782958984e-01) (15, 1,00967414677143096924e-01) (16, 5,55799126625061035156e-01) (17, -2,32920814305543899536e-02) (18, -3,10082674026489257812e-01) (19, 5,74650168418884277344e-01) (20, 2,33027171343564987183e-02) (21, 3,96479725837707519531e-01) (22, 3,48094463348388671875e-01) (23, 8,63818004727363586426e-02) (24, 4,15056347846984863281e-01) (25, 6,09260439872741699219e-01) (26, 3,66253346204757690430e-01) (27, -2,52058524638414382935e-02) (28, 1,05998121201992034912e-01) (29, 3,77969294786453247070e-01) (30, -9,31001976132392883301e-02) (31, 4,17109988629817962646e-02) (7, 8,10084879398345947266e-01) (8, 8,83384513854980468750e+00) (9, 4,16821556091308593750e+01) (10, 8,75794982910156250000e+00) (11, -7,35598230361938476562e+00) (12, -1,09019982814788818359e+00) (13, 7,66225755214691162109e-01) (14, -4,82514038085937500000e+01) (15, 7,83729970455169677734e-01) (16, -2,10617518424987792969e+00) (17, 8,74813270568847656250e+00) (18, -7,34952878952026367188e+00) (19, -1,90896415710449218750e+00) (20, 7,55541563034057617188e-01) (21, -3,73977851867675781250e+00) (22, -1,09394013881683349609e+00) (23, 9,48178231716156005859e-01) (24, -6,73434305191040039062e+00) (25, 1,85587108135223388672e+00) (26, -1,08724439144134521484e+00) (27, 8,73145484924316406250e+00) (28, 7,49041378498077392578e-01) (29, -3,71955585479736328125e+00) (30, 9,21566848754882812500e+01) (31, 1,02307968139648437500e+01) (7, 5,50914049148559570312e-01) (8, 5,05471900105476379395e-02) (9, -1,65580570697784423828e-01) (10, 7,21671655774116516113e-02) (11, 2,55633741617202758789e-01) (12, 4,25203263759613037109e-01) (13, 6,74097180366516113281e-01) (14, 1,09298098087310791016e+00) (15, 6,38046383857727050781e-01) (16, -5,75587809085845947266e-01) (17, 6,67077675461769104004e-02) (18, 1,39182507991790771484e-01) (19, -5,52494347095489501953e-01) (20, 4,84337598085403442383e-01) (21, 3,09172958135604858398e-01) (22, 3,78230661153793334961e-01) (23, 5,90290546417236328125e-01) (24, 3,24234902858734130859e-01) (25, -6,46210551261901855469e-01) (26, 3,85426670312881469727e-01) (27, 1,14016355946660041809e-02) (28, 5,64323663711547851562e-01) (29, 3,23152154684066772461e-01) (30, 7,58288323879241943359e-01) (31, 8,89979209750890731812e-03) (7, 1,42596113681793212891e+00) (8, 4,09896230697631835938e+00) (9, -1,05569101870059967041e-01) (10, 4,06416559219360351562e+00) (11, 3,54067230224609375000e+01) (12, -3,46640801429748535156e+00) (13, 1,32243764400482177734e+00) (14, 8,15044975280761718750e+00) (15, 1,33586502075195312500e+00) (16, 2,95343093872070312500e+01) (17, 4,10765314102172851562e+00) (18, 3,54353141784667968750e+01) (19, 2,95279884338378906250e+01) (20, 1,40808904170989990234e+00) (21, -1,97047603130340576172e+00) (22, -3,47735667228698730469e+00) (23, 8,59366416931152343750e-01) (24, 4,59504067897796630859e-01) (25, 2,45057725906372070312e+00) (26, -3,49637246131896972656e+00) (27, 4,11745548248291015625e+00) (28, 1,10929405689239501953e+00) (29, -1,98288059234619140625e+00) (30, -8,12444152832031250000e+01) (31, 4,23268127441406250000e+00) 
